FANN_FLO_2.1
num_layers=3
learning_rate=0.700000
connection_rate=1.000000
network_type=0
learning_momentum=0.000000
training_algorithm=2
train_error_function=1
train_stop_function=0
cascade_output_change_fraction=0.010000
quickprop_decay=-0.000100
quickprop_mu=1.750000
rprop_increase_factor=1.200000
rprop_decrease_factor=0.500000
rprop_delta_min=0.000000
rprop_delta_max=50.000000
rprop_delta_zero=0.100000
cascade_output_stagnation_epochs=12
cascade_candidate_change_fraction=0.010000
cascade_candidate_stagnation_epochs=12
cascade_max_out_epochs=150
cascade_min_out_epochs=50
cascade_max_cand_epochs=150
cascade_min_cand_epochs=50
cascade_num_candidate_groups=2
bit_fail_limit=3.49999994039535520000e-001
cascade_candidate_limit=1.00000000000000000000e+003
cascade_weight_multiplier=4.00000005960464480000e-001
cascade_activation_functions_count=10
cascade_activation_functions=3 5 7 8 10 11 14 15 16 17 
cascade_activation_steepnesses_count=4
cascade_activation_steepnesses=2.50000000000000000000e-001 5.00000000000000000000e-001 7.50000000000000000000e-001 1.00000000000000000000e+000 
layer_sizes=5 12 3 
scale_included=0
neurons (num_inputs, activation_function, activation_steepness)=(0, 0, 0.00000000000000000000e+000) (0, 0, 0.00000000000000000000e+000) (0, 0, 0.00000000000000000000e+000) (0, 0, 0.00000000000000000000e+000) (0, 0, 0.00000000000000000000e+000) (5, 5, 9.99999977648258210000e-003) (5, 5, 9.99999977648258210000e-003) (5, 5, 9.99999977648258210000e-003) (5, 5, 9.99999977648258210000e-003) (5, 5, 9.99999977648258210000e-003) (5, 5, 9.99999977648258210000e-003) (5, 5, 9.99999977648258210000e-003) (5, 5, 9.99999977648258210000e-003) (5, 5, 9.99999977648258210000e-003) (5, 5, 9.99999977648258210000e-003) (5, 5, 9.99999977648258210000e-003) (0, 0, 0.00000000000000000000e+000) (12, 5, 9.99999977648258210000e-003) (12, 5, 9.99999977648258210000e-003) (0, 0, 0.00000000000000000000e+000) 
connections (connected_to_neuron, weight)=(0, 4.55860290527343750000e+002) (1, -1.50000000000000000000e+003) (2, -1.50000000000000000000e+003) (3, 1.77793289184570310000e+002) (4, 1.50000000000000000000e+003) (0, 1.50000000000000000000e+003) (1, 1.50000000000000000000e+003) (2, 1.50000000000000000000e+003) (3, 1.50000000000000000000e+003) (4, -1.15568188476562500000e+003) (0, 1.44522094726562500000e+003) (1, -1.50000000000000000000e+003) (2, -1.50000000000000000000e+003) (3, -1.50000000000000000000e+003) (4, 1.50000000000000000000e+003) (0, -6.31276518106460570000e-004) (1, 1.50000000000000000000e+003) (2, -1.64751732349395750000e+000) (3, 1.50000000000000000000e+003) (4, 1.50000000000000000000e+003) (0, 1.50000000000000000000e+003) (1, 1.50000000000000000000e+003) (2, 1.50000000000000000000e+003) (3, -1.50000000000000000000e+003) (4, -9.42457885742187500000e+002) (0, -4.00252282619476320000e-001) (1, -1.27233276367187500000e+003) (2, 1.36530733108520510000e+001) (3, 4.46319389343261720000e+000) (4, 1.50000000000000000000e+003) (0, 1.50000000000000000000e+003) (1, 1.50000000000000000000e+003) (2, 1.50000000000000000000e+003) (3, -1.50000000000000000000e+003) (4, -2.63272521972656250000e+002) (0, -8.58076232910156250000e+002) (1, 1.47000000000000000000e+003) (2, 1.50000000000000000000e+003) (3, 1.06737207031250000000e+003) (4, -1.50000000000000000000e+003) (0, -1.50000000000000000000e+003) (1, 1.50000000000000000000e+003) (2, 1.50000000000000000000e+003) (3, 1.50000000000000000000e+003) (4, -9.26066223144531250000e+002) (0, 4.55926239013671870000e+002) (1, 1.10252136230468750000e+003) (2, -1.50000000000000000000e+003) (3, 1.50000000000000000000e+003) (4, 1.50000000000000000000e+003) (0, 2.25650715827941890000e+000) (1, -1.47195507812500000000e+003) (2, 1.74617061614990230000e+001) (3, -1.63023101806640620000e+002) (4, 1.50000000000000000000e+003) (5, -1.09167742729187010000e+000) (6, 2.14790439605712890000e+000) (7, -1.79481565952301030000e+000) (8, 6.60307264328002930000e+000) (9, -3.58577847480773930000e-001) (10, -7.19964599609375000000e+000) (11, -2.50289496034383770000e-002) (12, 1.00163173675537110000e+000) (13, 4.35787171125411990000e-001) (14, 1.00127227604389190000e-001) (15, -7.85197591781616210000e+000) (16, 7.57221126556396480000e+000) (5, 7.97645797729492190000e+001) (6, -4.81503677368164060000e+000) (7, 3.14841232299804690000e+001) (8, 9.05879669189453130000e+001) (9, -2.01505985260009770000e+001) (10, 1.30195617675781250000e+002) (11, -4.33280658721923830000e+000) (12, -5.38101234436035160000e+001) (13, 2.22995042800903320000e+000) (14, 2.65227532386779790000e+000) (15, 5.19337272644042970000e+001) (16, 1.32561035156250000000e+002) 
